<?xml version="1.0"?>
<opencv_storage>
<cascade>
  <stageType>BOOST</stageType>
  <featureType>HAAR</featureType>
  <height>36</height>
  <width>35</width>
  <stageParams>
    <boostType>GAB</boostType>
    <minHitRate>9.9500000476837158e-01</minHitRate>
    <maxFalseAlarm>5.0000000000000000e-01</maxFalseAlarm>
    <weightTrimRate>9.4999999999999996e-01</weightTrimRate>
    <maxDepth>1</maxDepth>
    <maxWeakCount>100</maxWeakCount></stageParams>
  <featureParams>
    <maxCatCount>0</maxCatCount>
    <featSize>1</featSize>
    <mode>BASIC</mode></featureParams>
  <stageNum>17</stageNum>
  <stages>
    <!-- stage 0 -->
    <_>
      <maxWeakCount>5</maxWeakCount>
      <stageThreshold>-1.7925511598587036e+00</stageThreshold>
      <weakClassifiers>
        <_>
          <internalNodes>
            0 -1 4 -2.0625341683626175e-02</internalNodes>
          <leafValues>
            7.6427257061004639e-01 -7.1555161476135254e-01</leafValues></_>
        <_>
          <internalNodes>
            0 -1 76 6.1281188391149044e-03</internalNodes>
          <leafValues>
            -5.5879640579223633e-01 6.2532031536102295e-01</leafValues></_>
        <_>
          <internalNodes>
            0 -1 17 2.4847313761711121e-03</internalNodes>
          <leafValues>
            -7.0925897359848022e-01 4.0862330794334412e-01</leafValues></_>
        <_>
          <internalNodes>
            0 -1 92 1.9027321832254529e-03</internalNodes>
          <leafValues>
            -5.5958271026611328e-01 4.9441903829574585e-01</leafValues></_>
        <_>
          <internalNodes>
            0 -1 35 -7.1751250652596354e-04</internalNodes>
          <leafValues>
            -3.6724382638931274e-01 8.4879696369171143e-01</leafValues></_></weakClassifiers></_>
    <!-- stage 1 -->
    <_>
      <maxWeakCount>3</maxWeakCount>
      <stageThreshold>-9.1510230302810669e-01</stageThreshold>
      <weakClassifiers>
        <_>
          <internalNodes>
            0 -1 85 1.1486308649182320e-02</internalNodes>
          <leafValues>
            -7.4148392677307129e-01 5.9208524227142334e-01</leafValues></_>
        <_>
          <internalNodes>
            0 -1 5 -6.0775119345635176e-04</internalNodes>
          <leafValues>
            5.6905210018157959e-01 -6.7767661809921265e-01</leafValues></_>
        <_>
          <internalNodes>
            0 -1 56 -5.2317441441118717e-04</internalNodes>
          <leafValues>
            5.0405818223953247e-01 -6.6717255115509033e-01</leafValues></_></weakClassifiers></_>
    <!-- stage 2 -->
    <_>
      <maxWeakCount>4</maxWeakCount>
      <stageThreshold>-1.2200943231582642e+00</stageThreshold>
      <weakClassifiers>
        <_>
          <internalNodes>
            0 -1 11 -3.0645378865301609e-03</internalNodes>
          <leafValues>
            4.3272727727890015e-01 -7.8835445642471313e-01</leafValues></_>
        <_>
          <internalNodes>
            0 -1 62 1.1502269655466080e-02</internalNodes>
          <leafValues>
            -5.9020882844924927e-01 4.8844745755195618e-01</leafValues></_>
        <_>
          <internalNodes>
            0 -1 92 1.9013020209968090e-03</internalNodes>
          <leafValues>
            -5.7399892807006836e-01 4.6091845631599426e-01</leafValues></_>
        <_>
          <internalNodes>
            0 -1 25 4.8459017276763916e-01</internalNodes>
          <leafValues>
            -3.0244949460029602e-01 8.7357950210571289e-01</leafValues></_></weakClassifiers></_>
    <!-- stage 3 -->
    <_>
      <maxWeakCount>4</maxWeakCount>
      <stageThreshold>-9.3557697534561157e-01</stageThreshold>
      <weakClassifiers>
        <_>
          <internalNodes>
            0 -1 51 5.3737894631922245e-03</internalNodes>
          <leafValues>
            -6.9161808490753174e-01 6.0281193256378174e-01</leafValues></_>
        <_>
          <internalNodes>
            0 -1 72 -2.8109563514590263e-02</internalNodes>
          <leafValues>
            4.2203527688980103e-01 -6.5182352066040039e-01</leafValues></_>
        <_>
          <internalNodes>
            0 -1 66 -1.0239365510642529e-03</internalNodes>
          <leafValues>
            -9.7140914201736450e-01 2.1814183890819550e-01</leafValues></_>
        <_>
          <internalNodes>
            0 -1 64 7.6262670336291194e-04</internalNodes>
          <leafValues>
            3.0028000473976135e-01 -8.8413596153259277e-01</leafValues></_></weakClassifiers></_>
    <!-- stage 4 -->
    <_>
      <maxWeakCount>5</maxWeakCount>
      <stageThreshold>-1.1584676504135132e+00</stageThreshold>
      <weakClassifiers>
        <_>
          <internalNodes>
            0 -1 95 5.0901472568511963e-03</internalNodes>
          <leafValues>
            -7.0877355337142944e-01 5.5056178569793701e-01</leafValues></_>
        <_>
          <internalNodes>
            0 -1 58 -6.5694659948348999e-02</internalNodes>
          <leafValues>
            -9.7403264045715332e-01 2.5340116024017334e-01</leafValues></_>
        <_>
          <internalNodes>
            0 -1 23 3.4445073106326163e-04</internalNodes>
          <leafValues>
            -5.9876245260238647e-01 4.2738133668899536e-01</leafValues></_>
        <_>
          <internalNodes>
            0 -1 52 -2.0217075943946838e-03</internalNodes>
          <leafValues>
            6.5126454830169678e-01 -4.1294994950294495e-01</leafValues></_>
        <_>
          <internalNodes>
            0 -1 49 -9.7037130035459995e-04</internalNodes>
          <leafValues>
            -9.0518236160278320e-01 3.0861714482307434e-01</leafValues></_></weakClassifiers></_>
    <!-- stage 5 -->
    <_>
      <maxWeakCount>4</maxWeakCount>
      <stageThreshold>-9.3594306707382202e-01</stageThreshold>
      <weakClassifiers>
        <_>
          <internalNodes>
            0 -1 67 1.3527958653867245e-03</internalNodes>
          <leafValues>
            -7.2217023372650146e-01 5.1963746547698975e-01</leafValues></_>
        <_>
          <internalNodes>
            0 -1 23 3.4422602038830519e-04</internalNodes>
          <leafValues>
            -6.2955576181411743e-01 4.0582400560379028e-01</leafValues></_>
        <_>
          <internalNodes>
            0 -1 50 7.9258845653384924e-04</internalNodes>
          <leafValues>
            2.4310414493083954e-01 -9.9117660522460938e-01</leafValues></_>
        <_>
          <internalNodes>
            0 -1 13 -5.4387778043746948e-01</internalNodes>
          <leafValues>
            1.7267878353595734e-01 -9.6771937608718872e-01</leafValues></_></weakClassifiers></_>
    <!-- stage 6 -->
    <_>
      <maxWeakCount>5</maxWeakCount>
      <stageThreshold>-1.2740637063980103e+00</stageThreshold>
      <weakClassifiers>
        <_>
          <internalNodes>
            0 -1 90 1.0155508294701576e-02</internalNodes>
          <leafValues>
            -7.1281087398529053e-01 4.7683107852935791e-01</leafValues></_>
        <_>
          <internalNodes>
            0 -1 24 3.1343833543360233e-03</internalNodes>
          <leafValues>
            -6.1576265096664429e-01 3.6704474687576294e-01</leafValues></_>
        <_>
          <internalNodes>
            0 -1 75 9.9368463270366192e-04</internalNodes>
          <leafValues>
            2.4080437421798706e-01 -9.2285060882568359e-01</leafValues></_>
        <_>
          <internalNodes>
            0 -1 80 9.8949838429689407e-03</internalNodes>
          <leafValues>
            -4.7133636474609375e-01 5.1501441001892090e-01</leafValues></_>
        <_>
          <internalNodes>
            0 -1 79 -1.3154275948181748e-03</internalNodes>
          <leafValues>
            -9.0468168258666992e-01 2.8504183888435364e-01</leafValues></_></weakClassifiers></_>
    <!-- stage 7 -->
    <_>
      <maxWeakCount>6</maxWeakCount>
      <stageThreshold>-1.2894383668899536e+00</stageThreshold>
      <weakClassifiers>
        <_>
          <internalNodes>
            0 -1 69 3.4736082889139652e-03</internalNodes>
          <leafValues>
            -7.2886300086975098e-01 4.0431267023086548e-01</leafValues></_>
        <_>
          <internalNodes>
            0 -1 23 3.4638799843378365e-04</internalNodes>
          <leafValues>
            -5.6237584352493286e-01 3.7465649843215942e-01</leafValues></_>
        <_>
          <internalNodes>
            0 -1 78 5.7270727120339870e-04</internalNodes>
          <leafValues>
            1.9835969805717468e-01 -9.5802938938140869e-01</leafValues></_>
        <_>
          <internalNodes>
            0 -1 84 -6.2401662580668926e-04</internalNodes>
          <leafValues>
            4.2701184749603271e-01 -4.6525183320045471e-01</leafValues></_>
        <_>
          <internalNodes>
            0 -1 38 4.8815028276294470e-04</internalNodes>
          <leafValues>
            2.4827535450458527e-01 -8.9549446105957031e-01</leafValues></_>
        <_>
          <internalNodes>
            0 -1 37 -1.0034854058176279e-03</internalNodes>
          <leafValues>
            -9.1661512851715088e-01 1.8279100954532623e-01</leafValues></_></weakClassifiers></_>
    <!-- stage 8 -->
    <_>
      <maxWeakCount>7</maxWeakCount>
      <stageThreshold>-1.2581295967102051e+00</stageThreshold>
      <weakClassifiers>
        <_>
          <internalNodes>
            0 -1 3 -4.2237788438796997e-03</internalNodes>
          <leafValues>
            4.2815676331520081e-01 -7.0819514989852905e-01</leafValues></_>
        <_>
          <internalNodes>
            0 -1 86 1.9525508396327496e-03</internalNodes>
          <leafValues>
            -5.2296853065490723e-01 4.1110807657241821e-01</leafValues></_>
        <_>
          <internalNodes>
            0 -1 94 1.0719674173742533e-03</internalNodes>
          <leafValues>
            -3.3486881852149963e-01 6.2516367435455322e-01</leafValues></_>
        <_>
          <internalNodes>
            0 -1 22 -1.1409303406253457e-03</internalNodes>
          <leafValues>
            -8.7429171800613403e-01 2.4174490571022034e-01</leafValues></_>
        <_>
          <internalNodes>
            0 -1 36 5.4203770123422146e-03</internalNodes>
          <leafValues>
            -2.7442735433578491e-01 8.4290659427642822e-01</leafValues></_>
        <_>
          <internalNodes>
            0 -1 7 1.1482593603432178e-02</internalNodes>
          <leafValues>
            -3.1353756785392761e-01 7.0699477195739746e-01</leafValues></_>
        <_>
          <internalNodes>
            0 -1 19 3.2826969400048256e-03</internalNodes>
          <leafValues>
            -2.7995371818542480e-01 7.4664354324340820e-01</leafValues></_></weakClassifiers></_>
    <!-- stage 9 -->
    <_>
      <maxWeakCount>7</maxWeakCount>
      <stageThreshold>-1.0332541465759277e+00</stageThreshold>
      <weakClassifiers>
        <_>
          <internalNodes>
            0 -1 71 1.0343156754970551e-03</internalNodes>
          <leafValues>
            -7.1838200092315674e-01 2.3966942727565765e-01</leafValues></_>
        <_>
          <internalNodes>
            0 -1 21 5.2785705775022507e-03</internalNodes>
          <leafValues>
            -4.2399680614471436e-01 5.4315406084060669e-01</leafValues></_>
        <_>
          <internalNodes>
            0 -1 40 2.0861867815256119e-03</internalNodes>
          <leafValues>
            2.0029021799564362e-01 -9.2584282159805298e-01</leafValues></_>
        <_>
          <internalNodes>
            0 -1 45 -1.8117445288226008e-03</internalNodes>
          <leafValues>
            -9.6364605426788330e-01 1.6472819447517395e-01</leafValues></_>
        <_>
          <internalNodes>
            0 -1 33 -1.0660829022526741e-02</internalNodes>
          <leafValues>
            -2.9694753885269165e-01 6.1031007766723633e-01</leafValues></_>
        <_>
          <internalNodes>
            0 -1 30 -1.1836369521915913e-02</internalNodes>
          <leafValues>
            4.8725625872612000e-01 -4.2495477199554443e-01</leafValues></_>
        <_>
          <internalNodes>
            0 -1 8 3.0294370651245117e-01</internalNodes>
          <leafValues>
            -2.8497916460037231e-01 7.0820176601409912e-01</leafValues></_></weakClassifiers></_>
    <!-- stage 10 -->
    <_>
      <maxWeakCount>5</maxWeakCount>
      <stageThreshold>-1.0588989257812500e+00</stageThreshold>
      <weakClassifiers>
        <_>
          <internalNodes>
            0 -1 82 6.2225526198744774e-04</internalNodes>
          <leafValues>
            -7.6136970520019531e-01 2.3952738940715790e-01</leafValues></_>
        <_>
          <internalNodes>
            0 -1 87 -1.1355311144143343e-03</internalNodes>
          <leafValues>
            3.0178213119506836e-01 -5.6864291429519653e-01</leafValues></_>
        <_>
          <internalNodes>
            0 -1 32 3.5568405874073505e-03</internalNodes>
          <leafValues>
            2.0294907689094543e-01 -8.6723452806472778e-01</leafValues></_>
        <_>
          <internalNodes>
            0 -1 9 -4.6327360905706882e-04</internalNodes>
          <leafValues>
            3.5300204157829285e-01 -5.1711970567703247e-01</leafValues></_>
        <_>
          <internalNodes>
            0 -1 12 -3.5481965541839600e-01</internalNodes>
          <leafValues>
            6.5489166975021362e-01 -2.8483742475509644e-01</leafValues></_></weakClassifiers></_>
    <!-- stage 11 -->
    <_>
      <maxWeakCount>8</maxWeakCount>
      <stageThreshold>-1.4067844152450562e+00</stageThreshold>
      <weakClassifiers>
        <_>
          <internalNodes>
            0 -1 63 -1.2920430162921548e-03</internalNodes>
          <leafValues>
            3.0043542385101318e-01 -6.6650873422622681e-01</leafValues></_>
        <_>
          <internalNodes>
            0 -1 96 5.0797278527170420e-04</internalNodes>
          <leafValues>
            -5.3325396776199341e-01 3.7352764606475830e-01</leafValues></_>
        <_>
          <internalNodes>
            0 -1 47 -3.7052968982607126e-03</internalNodes>
          <leafValues>
            6.1241424083709717e-01 -2.9970765113830566e-01</leafValues></_>
        <_>
          <internalNodes>
            0 -1 81 4.7018175246194005e-04</internalNodes>
          <leafValues>
            2.2927370667457581e-01 -9.0636998414993286e-01</leafValues></_>
        <_>
          <internalNodes>
            0 -1 39 1.2242068350315094e-01</internalNodes>
          <leafValues>
            -3.5730189085006714e-01 6.1509490013122559e-01</leafValues></_>
        <_>
          <internalNodes>
            0 -1 43 -6.2770838849246502e-04</internalNodes>
          <leafValues>
            -9.4598418474197388e-01 2.3537595570087433e-01</leafValues></_>
        <_>
          <internalNodes>
            0 -1 60 -2.7516447007656097e-03</internalNodes>
          <leafValues>
            4.8423627018928528e-01 -4.1824021935462952e-01</leafValues></_>
        <_>
          <internalNodes>
            0 -1 61 1.0418021120131016e-03</internalNodes>
          <leafValues>
            -2.7003601193428040e-01 6.9744706153869629e-01</leafValues></_></weakClassifiers></_>
    <!-- stage 12 -->
    <_>
      <maxWeakCount>7</maxWeakCount>
      <stageThreshold>-1.2431946992874146e+00</stageThreshold>
      <weakClassifiers>
        <_>
          <internalNodes>
            0 -1 15 1.8391236662864685e-03</internalNodes>
          <leafValues>
            -7.5537192821502686e-01 1.7360405623912811e-01</leafValues></_>
        <_>
          <internalNodes>
            0 -1 2 -1.5020358841866255e-03</internalNodes>
          <leafValues>
            2.4783459305763245e-01 -5.7093471288681030e-01</leafValues></_>
        <_>
          <internalNodes>
            0 -1 68 -1.0132616152986884e-03</internalNodes>
          <leafValues>
            -9.6618056297302246e-01 1.5213967859745026e-01</leafValues></_>
        <_>
          <internalNodes>
            0 -1 91 1.3318578712642193e-03</internalNodes>
          <leafValues>
            -4.6536344289779663e-01 3.6244747042655945e-01</leafValues></_>
        <_>
          <internalNodes>
            0 -1 34 4.4461139477789402e-03</internalNodes>
          <leafValues>
            -2.7533116936683655e-01 7.9108417034149170e-01</leafValues></_>
        <_>
          <internalNodes>
            0 -1 42 1.3935666065663099e-03</internalNodes>
          <leafValues>
            -3.6617800593376160e-01 5.1176458597183228e-01</leafValues></_>
        <_>
          <internalNodes>
            0 -1 28 -5.7934079086408019e-04</internalNodes>
          <leafValues>
            -9.1617166996002197e-01 2.1907556056976318e-01</leafValues></_></weakClassifiers></_>
    <!-- stage 13 -->
    <_>
      <maxWeakCount>7</maxWeakCount>
      <stageThreshold>-1.5614339113235474e+00</stageThreshold>
      <weakClassifiers>
        <_>
          <internalNodes>
            0 -1 1 -4.0069036185741425e-03</internalNodes>
          <leafValues>
            2.2636815905570984e-01 -6.9238477945327759e-01</leafValues></_>
        <_>
          <internalNodes>
            0 -1 73 -6.4312363974750042e-04</internalNodes>
          <leafValues>
            1.7852082848548889e-01 -7.3337668180465698e-01</leafValues></_>
        <_>
          <internalNodes>
            0 -1 18 3.3820932731032372e-04</internalNodes>
          <leafValues>
            -5.4841399192810059e-01 2.7540329098701477e-01</leafValues></_>
        <_>
          <internalNodes>
            0 -1 0 -4.9262958765029907e-01</internalNodes>
          <leafValues>
            7.7424132823944092e-01 -2.4604323506355286e-01</leafValues></_>
        <_>
          <internalNodes>
            0 -1 0 3.8109052181243896e-01</internalNodes>
          <leafValues>
            -3.0327144265174866e-01 6.4235061407089233e-01</leafValues></_>
        <_>
          <internalNodes>
            0 -1 89 4.7590688336640596e-04</internalNodes>
          <leafValues>
            -4.3738719820976257e-01 4.5307713747024536e-01</leafValues></_>
        <_>
          <internalNodes>
            0 -1 83 9.3366106739267707e-04</internalNodes>
          <leafValues>
            -4.4465842843055725e-01 3.9407819509506226e-01</leafValues></_></weakClassifiers></_>
    <!-- stage 14 -->
    <_>
      <maxWeakCount>7</maxWeakCount>
      <stageThreshold>-1.2312676906585693e+00</stageThreshold>
      <weakClassifiers>
        <_>
          <internalNodes>
            0 -1 16 -1.5488441567867994e-03</internalNodes>
          <leafValues>
            6.1792861670255661e-02 -7.6983648538589478e-01</leafValues></_>
        <_>
          <internalNodes>
            0 -1 93 -1.5338038792833686e-04</internalNodes>
          <leafValues>
            3.3221712708473206e-01 -4.9437332153320313e-01</leafValues></_>
        <_>
          <internalNodes>
            0 -1 74 -6.7463272716850042e-04</internalNodes>
          <leafValues>
            -8.3692759275436401e-01 1.8251188099384308e-01</leafValues></_>
        <_>
          <internalNodes>
            0 -1 46 -1.1184462346136570e-03</internalNodes>
          <leafValues>
            5.4366832971572876e-01 -2.6573339104652405e-01</leafValues></_>
        <_>
          <internalNodes>
            0 -1 31 1.0518866591155529e-02</internalNodes>
          <leafValues>
            -2.5123840570449829e-01 8.0034744739532471e-01</leafValues></_>
        <_>
          <internalNodes>
            0 -1 53 1.1860298691317439e-03</internalNodes>
          <leafValues>
            2.0909674465656281e-01 -9.2476159334182739e-01</leafValues></_>
        <_>
          <internalNodes>
            0 -1 54 -8.3067046944051981e-04</internalNodes>
          <leafValues>
            -8.7018555402755737e-01 1.5830525755882263e-01</leafValues></_></weakClassifiers></_>
    <!-- stage 15 -->
    <_>
      <maxWeakCount>8</maxWeakCount>
      <stageThreshold>-1.3414360284805298e+00</stageThreshold>
      <weakClassifiers>
        <_>
          <internalNodes>
            0 -1 14 -1.4390967553481460e-03</internalNodes>
          <leafValues>
            3.8283827900886536e-01 -6.5268915891647339e-01</leafValues></_>
        <_>
          <internalNodes>
            0 -1 70 3.9422727422788739e-04</internalNodes>
          <leafValues>
            -4.2870101332664490e-01 3.9496120810508728e-01</leafValues></_>
        <_>
          <internalNodes>
            0 -1 48 1.8440413987264037e-03</internalNodes>
          <leafValues>
            -2.5512039661407471e-01 7.0281326770782471e-01</leafValues></_>
        <_>
          <internalNodes>
            0 -1 59 -2.5382748572155833e-04</internalNodes>
          <leafValues>
            4.6173375844955444e-01 -5.0176841020584106e-01</leafValues></_>
        <_>
          <internalNodes>
            0 -1 10 4.9764668801799417e-04</internalNodes>
          <leafValues>
            -3.8080975413322449e-01 4.1361647844314575e-01</leafValues></_>
        <_>
          <internalNodes>
            0 -1 77 6.7762599792331457e-04</internalNodes>
          <leafValues>
            1.8525035679340363e-01 -8.5023665428161621e-01</leafValues></_>
        <_>
          <internalNodes>
            0 -1 27 -3.2101317774504423e-03</internalNodes>
          <leafValues>
            6.0103738307952881e-01 -2.5423732399940491e-01</leafValues></_>
        <_>
          <internalNodes>
            0 -1 29 3.3766804262995720e-03</internalNodes>
          <leafValues>
            1.9496230781078339e-01 -9.0645986795425415e-01</leafValues></_></weakClassifiers></_>
    <!-- stage 16 -->
    <_>
      <maxWeakCount>9</maxWeakCount>
      <stageThreshold>-1.3409720659255981e+00</stageThreshold>
      <weakClassifiers>
        <_>
          <internalNodes>
            0 -1 6 4.4579701498150826e-03</internalNodes>
          <leafValues>
            -6.8807339668273926e-01 1.7899760603904724e-01</leafValues></_>
        <_>
          <internalNodes>
            0 -1 88 5.1955157687189057e-05</internalNodes>
          <leafValues>
            -5.9770375490188599e-01 2.2520026564598083e-01</leafValues></_>
        <_>
          <internalNodes>
            0 -1 20 2.3005278781056404e-03</internalNodes>
          <leafValues>
            -2.3512680828571320e-01 7.0323354005813599e-01</leafValues></_>
        <_>
          <internalNodes>
            0 -1 26 -8.9354458032175899e-04</internalNodes>
          <leafValues>
            6.5490722656250000e-01 -2.6210135221481323e-01</leafValues></_>
        <_>
          <internalNodes>
            0 -1 57 1.7041331157088280e-03</internalNodes>
          <leafValues>
            -4.7315692901611328e-01 3.3990025520324707e-01</leafValues></_>
        <_>
          <internalNodes>
            0 -1 44 1.4738757908344269e-01</internalNodes>
          <leafValues>
            -2.0621776580810547e-01 7.4062275886535645e-01</leafValues></_>
        <_>
          <internalNodes>
            0 -1 55 -2.3928745649755001e-03</internalNodes>
          <leafValues>
            5.5949515104293823e-01 -2.9217636585235596e-01</leafValues></_>
        <_>
          <internalNodes>
            0 -1 41 -3.4874858101829886e-04</internalNodes>
          <leafValues>
            3.9497697353363037e-01 -3.8643386960029602e-01</leafValues></_>
        <_>
          <internalNodes>
            0 -1 65 -8.1530003808438778e-04</internalNodes>
          <leafValues>
            -8.4021174907684326e-01 1.9570329785346985e-01</leafValues></_></weakClassifiers></_></stages>
  <features>
    <_>
      <rects>
        <_>
          0 0 34 32 -1.</_>
        <_>
          17 0 17 32 2.</_></rects>
      <tilted>0</tilted></_>
    <_>
      <rects>
        <_>
          0 2 2 18 -1.</_>
        <_>
          0 2 1 9 2.</_>
        <_>
          1 11 1 9 2.</_></rects>
      <tilted>0</tilted></_>
    <_>
      <rects>
        <_>
          0 4 6 4 -1.</_>
        <_>
          3 4 3 4 2.</_></rects>
      <tilted>0</tilted></_>
    <_>
      <rects>
        <_>
          0 5 4 8 -1.</_>
        <_>
          0 5 2 4 2.</_>
        <_>
          2 9 2 4 2.</_></rects>
      <tilted>0</tilted></_>
    <_>
      <rects>
        <_>
          0 9 4 18 -1.</_>
        <_>
          2 9 2 18 2.</_></rects>
      <tilted>0</tilted></_>
    <_>
      <rects>
        <_>
          0 14 2 4 -1.</_>
        <_>
          1 14 1 4 2.</_></rects>
      <tilted>0</tilted></_>
    <_>
      <rects>
        <_>
          0 14 2 22 -1.</_>
        <_>
          0 14 1 11 2.</_>
        <_>
          1 25 1 11 2.</_></rects>
      <tilted>0</tilted></_>
    <_>
      <rects>
        <_>
          0 28 10 8 -1.</_>
        <_>
          0 28 5 4 2.</_>
        <_>
          5 32 5 4 2.</_></rects>
      <tilted>0</tilted></_>
    <_>
      <rects>
        <_>
          1 1 30 32 -1.</_>
        <_>
          16 1 15 32 2.</_></rects>
      <tilted>0</tilted></_>
    <_>
      <rects>
        <_>
          1 11 4 4 -1.</_>
        <_>
          1 13 4 2 2.</_></rects>
      <tilted>0</tilted></_>
    <_>
      <rects>
        <_>
          1 29 6 2 -1.</_>
        <_>
          1 29 3 1 2.</_>
        <_>
          4 30 3 1 2.</_></rects>
      <tilted>0</tilted></_>
    <_>
      <rects>
        <_>
          1 30 10 1 -1.</_>
        <_>
          6 30 5 1 2.</_></rects>
      <tilted>0</tilted></_>
    <_>
      <rects>
        <_>
          2 2 30 32 -1.</_>
        <_>
          17 2 15 32 2.</_></rects>
      <tilted>0</tilted></_>
    <_>
      <rects>
        <_>
          2 3 33 29 -1.</_>
        <_>
          13 3 11 29 2.</_></rects>
      <tilted>0</tilted></_>
    <_>
      <rects>
        <_>
          2 5 2 6 -1.</_>
        <_>
          2 5 1 3 2.</_>
        <_>
          3 8 1 3 2.</_></rects>
      <tilted>0</tilted></_>
    <_>
      <rects>
        <_>
          2 27 4 6 -1.</_>
        <_>
          2 27 2 3 2.</_>
        <_>
          4 30 2 3 2.</_></rects>
      <tilted>0</tilted></_>
    <_>
      <rects>
        <_>
          2 29 6 1 -1.</_>
        <_>
          5 29 3 1 2.</_></rects>
      <tilted>0</tilted></_>
    <_>
      <rects>
        <_>
          2 30 27 4 -1.</_>
        <_>
          2 32 27 2 2.</_></rects>
      <tilted>0</tilted></_>
    <_>
      <rects>
        <_>
          2 31 7 2 -1.</_>
        <_>
          2 32 7 1 2.</_></rects>
      <tilted>0</tilted></_>
    <_>
      <rects>
        <_>
          3 3 4 6 -1.</_>
        <_>
          3 3 2 3 2.</_>
        <_>
          5 6 2 3 2.</_></rects>
      <tilted>0</tilted></_>
    <_>
      <rects>
        <_>
          3 5 6 2 -1.</_>
        <_>
          6 5 3 2 2.</_></rects>
      <tilted>0</tilted></_>
    <_>
      <rects>
        <_>
          3 5 6 8 -1.</_>
        <_>
          3 5 3 4 2.</_>
        <_>
          6 9 3 4 2.</_></rects>
      <tilted>0</tilted></_>
    <_>
      <rects>
        <_>
          3 11 8 8 -1.</_>
        <_>
          3 11 4 4 2.</_>
        <_>
          7 15 4 4 2.</_></rects>
      <tilted>0</tilted></_>
    <_>
      <rects>
        <_>
          3 28 3 2 -1.</_>
        <_>
          3 29 3 1 2.</_></rects>
      <tilted>0</tilted></_>
    <_>
      <rects>
        <_>
          3 32 10 4 -1.</_>
        <_>
          3 34 10 2 2.</_></rects>
      <tilted>0</tilted></_>
    <_>
      <rects>
        <_>
          4 0 30 35 -1.</_>
        <_>
          19 0 15 35 2.</_></rects>
      <tilted>0</tilted></_>
    <_>
      <rects>
        <_>
          5 2 6 2 -1.</_>
        <_>
          5 2 3 1 2.</_>
        <_>
          8 3 3 1 2.</_></rects>
      <tilted>0</tilted></_>
    <_>
      <rects>
        <_>
          5 3 6 6 -1.</_>
        <_>
          5 3 3 3 2.</_>
        <_>
          8 6 3 3 2.</_></rects>
      <tilted>0</tilted></_>
    <_>
      <rects>
        <_>
          5 17 2 10 -1.</_>
        <_>
          5 17 1 5 2.</_>
        <_>
          6 22 1 5 2.</_></rects>
      <tilted>0</tilted></_>
    <_>
      <rects>
        <_>
          5 19 10 10 -1.</_>
        <_>
          5 19 5 5 2.</_>
        <_>
          10 24 5 5 2.</_></rects>
      <tilted>0</tilted></_>
    <_>
      <rects>
        <_>
          5 32 18 3 -1.</_>
        <_>
          14 32 9 3 2.</_></rects>
      <tilted>0</tilted></_>
    <_>
      <rects>
        <_>
          6 0 3 10 -1.</_>
        <_>
          6 5 3 5 2.</_></rects>
      <tilted>0</tilted></_>
    <_>
      <rects>
        <_>
          6 6 6 18 -1.</_>
        <_>
          6 6 3 9 2.</_>
        <_>
          9 15 3 9 2.</_></rects>
      <tilted>0</tilted></_>
    <_>
      <rects>
        <_>
          7 0 3 12 -1.</_>
        <_>
          7 4 3 4 2.</_></rects>
      <tilted>0</tilted></_>
    <_>
      <rects>
        <_>
          7 2 2 6 -1.</_>
        <_>
          7 5 2 3 2.</_></rects>
      <tilted>0</tilted></_>
    <_>
      <rects>
        <_>
          8 1 3 1 -1.</_>
        <_>
          9 1 1 1 2.</_></rects>
      <tilted>0</tilted></_>
    <_>
      <rects>
        <_>
          8 1 3 4 -1.</_>
        <_>
          8 3 3 2 2.</_></rects>
      <tilted>0</tilted></_>
    <_>
      <rects>
        <_>
          8 11 24 2 -1.</_>
        <_>
          8 11 12 1 2.</_>
        <_>
          20 12 12 1 2.</_></rects>
      <tilted>0</tilted></_>
    <_>
      <rects>
        <_>
          9 11 22 2 -1.</_>
        <_>
          9 11 11 1 2.</_>
        <_>
          20 12 11 1 2.</_></rects>
      <tilted>0</tilted></_>
    <_>
      <rects>
        <_>
          9 20 24 14 -1.</_>
        <_>
          21 20 12 14 2.</_></rects>
      <tilted>0</tilted></_>
    <_>
      <rects>
        <_>
          9 28 18 4 -1.</_>
        <_>
          9 28 9 2 2.</_>
        <_>
          18 30 9 2 2.</_></rects>
      <tilted>0</tilted></_>
    <_>
      <rects>
        <_>
          9 31 4 4 -1.</_>
        <_>
          9 31 2 2 2.</_>
        <_>
          11 33 2 2 2.</_></rects>
      <tilted>0</tilted></_>
    <_>
      <rects>
        <_>
          9 33 6 2 -1.</_>
        <_>
          9 34 6 1 2.</_></rects>
      <tilted>0</tilted></_>
    <_>
      <rects>
        <_>
          10 4 14 2 -1.</_>
        <_>
          10 4 7 1 2.</_>
        <_>
          17 5 7 1 2.</_></rects>
      <tilted>0</tilted></_>
    <_>
      <rects>
        <_>
          10 5 24 15 -1.</_>
        <_>
          22 5 12 15 2.</_></rects>
      <tilted>0</tilted></_>
    <_>
      <rects>
        <_>
          10 29 16 4 -1.</_>
        <_>
          10 29 8 2 2.</_>
        <_>
          18 31 8 2 2.</_></rects>
      <tilted>0</tilted></_>
    <_>
      <rects>
        <_>
          11 0 1 4 -1.</_>
        <_>
          11 2 1 2 2.</_></rects>
      <tilted>0</tilted></_>
    <_>
      <rects>
        <_>
          11 0 9 2 -1.</_>
        <_>
          11 1 9 1 2.</_></rects>
      <tilted>0</tilted></_>
    <_>
      <rects>
        <_>
          11 0 9 4 -1.</_>
        <_>
          11 2 9 2 2.</_></rects>
      <tilted>0</tilted></_>
    <_>
      <rects>
        <_>
          11 27 18 4 -1.</_>
        <_>
          11 27 9 2 2.</_>
        <_>
          20 29 9 2 2.</_></rects>
      <tilted>0</tilted></_>
    <_>
      <rects>
        <_>
          12 28 16 2 -1.</_>
        <_>
          12 28 8 1 2.</_>
        <_>
          20 29 8 1 2.</_></rects>
      <tilted>0</tilted></_>
    <_>
      <rects>
        <_>
          12 34 11 2 -1.</_>
        <_>
          12 35 11 1 2.</_></rects>
      <tilted>0</tilted></_>
    <_>
      <rects>
        <_>
          15 0 6 2 -1.</_>
        <_>
          15 1 6 1 2.</_></rects>
      <tilted>0</tilted></_>
    <_>
      <rects>
        <_>
          16 2 4 10 -1.</_>
        <_>
          16 2 2 5 2.</_>
        <_>
          18 7 2 5 2.</_></rects>
      <tilted>0</tilted></_>
    <_>
      <rects>
        <_>
          16 3 4 8 -1.</_>
        <_>
          16 3 2 4 2.</_>
        <_>
          18 7 2 4 2.</_></rects>
      <tilted>0</tilted></_>
    <_>
      <rects>
        <_>
          16 7 10 3 -1.</_>
        <_>
          21 7 5 3 2.</_></rects>
      <tilted>0</tilted></_>
    <_>
      <rects>
        <_>
          17 1 4 4 -1.</_>
        <_>
          17 3 4 2 2.</_></rects>
      <tilted>0</tilted></_>
    <_>
      <rects>
        <_>
          17 31 8 4 -1.</_>
        <_>
          17 33 8 2 2.</_></rects>
      <tilted>0</tilted></_>
    <_>
      <rects>
        <_>
          17 32 18 3 -1.</_>
        <_>
          23 32 6 3 2.</_></rects>
      <tilted>0</tilted></_>
    <_>
      <rects>
        <_>
          18 0 2 2 -1.</_>
        <_>
          18 1 2 1 2.</_></rects>
      <tilted>0</tilted></_>
    <_>
      <rects>
        <_>
          18 0 8 6 -1.</_>
        <_>
          18 0 4 3 2.</_>
        <_>
          22 3 4 3 2.</_></rects>
      <tilted>0</tilted></_>
    <_>
      <rects>
        <_>
          19 1 6 2 -1.</_>
        <_>
          19 1 3 1 2.</_>
        <_>
          22 2 3 1 2.</_></rects>
      <tilted>0</tilted></_>
    <_>
      <rects>
        <_>
          20 1 12 4 -1.</_>
        <_>
          26 1 6 4 2.</_></rects>
      <tilted>0</tilted></_>
    <_>
      <rects>
        <_>
          20 34 6 2 -1.</_>
        <_>
          20 34 3 1 2.</_>
        <_>
          23 35 3 1 2.</_></rects>
      <tilted>0</tilted></_>
    <_>
      <rects>
        <_>
          21 17 12 4 -1.</_>
        <_>
          21 17 6 2 2.</_>
        <_>
          27 19 6 2 2.</_></rects>
      <tilted>0</tilted></_>
    <_>
      <rects>
        <_>
          22 15 4 16 -1.</_>
        <_>
          22 15 2 8 2.</_>
        <_>
          24 23 2 8 2.</_></rects>
      <tilted>0</tilted></_>
    <_>
      <rects>
        <_>
          22 17 12 4 -1.</_>
        <_>
          22 17 6 2 2.</_>
        <_>
          28 19 6 2 2.</_></rects>
      <tilted>0</tilted></_>
    <_>
      <rects>
        <_>
          22 33 3 2 -1.</_>
        <_>
          22 34 3 1 2.</_></rects>
      <tilted>0</tilted></_>
    <_>
      <rects>
        <_>
          23 14 10 4 -1.</_>
        <_>
          23 14 5 2 2.</_>
        <_>
          28 16 5 2 2.</_></rects>
      <tilted>0</tilted></_>
    <_>
      <rects>
        <_>
          23 28 6 6 -1.</_>
        <_>
          23 28 3 3 2.</_>
        <_>
          26 31 3 3 2.</_></rects>
      <tilted>0</tilted></_>
    <_>
      <rects>
        <_>
          24 31 4 2 -1.</_>
        <_>
          24 31 2 1 2.</_>
        <_>
          26 32 2 1 2.</_></rects>
      <tilted>0</tilted></_>
    <_>
      <rects>
        <_>
          24 32 3 2 -1.</_>
        <_>
          24 33 3 1 2.</_></rects>
      <tilted>0</tilted></_>
    <_>
      <rects>
        <_>
          25 0 8 18 -1.</_>
        <_>
          25 9 8 9 2.</_></rects>
      <tilted>0</tilted></_>
    <_>
      <rects>
        <_>
          25 8 8 6 -1.</_>
        <_>
          25 11 8 3 2.</_></rects>
      <tilted>0</tilted></_>
    <_>
      <rects>
        <_>
          25 15 4 14 -1.</_>
        <_>
          25 15 2 7 2.</_>
        <_>
          27 22 2 7 2.</_></rects>
      <tilted>0</tilted></_>
    <_>
      <rects>
        <_>
          25 16 8 6 -1.</_>
        <_>
          25 16 4 3 2.</_>
        <_>
          29 19 4 3 2.</_></rects>
      <tilted>0</tilted></_>
    <_>
      <rects>
        <_>
          26 3 6 5 -1.</_>
        <_>
          29 3 3 5 2.</_></rects>
      <tilted>0</tilted></_>
    <_>
      <rects>
        <_>
          26 7 2 24 -1.</_>
        <_>
          26 7 1 12 2.</_>
        <_>
          27 19 1 12 2.</_></rects>
      <tilted>0</tilted></_>
    <_>
      <rects>
        <_>
          26 13 6 6 -1.</_>
        <_>
          26 13 3 3 2.</_>
        <_>
          29 16 3 3 2.</_></rects>
      <tilted>0</tilted></_>
    <_>
      <rects>
        <_>
          26 13 6 12 -1.</_>
        <_>
          26 13 3 6 2.</_>
        <_>
          29 19 3 6 2.</_></rects>
      <tilted>0</tilted></_>
    <_>
      <rects>
        <_>
          27 0 8 10 -1.</_>
        <_>
          27 0 4 5 2.</_>
        <_>
          31 5 4 5 2.</_></rects>
      <tilted>0</tilted></_>
    <_>
      <rects>
        <_>
          27 11 2 18 -1.</_>
        <_>
          27 11 1 9 2.</_>
        <_>
          28 20 1 9 2.</_></rects>
      <tilted>0</tilted></_>
    <_>
      <rects>
        <_>
          27 27 4 4 -1.</_>
        <_>
          27 27 2 2 2.</_>
        <_>
          29 29 2 2 2.</_></rects>
      <tilted>0</tilted></_>
    <_>
      <rects>
        <_>
          28 6 4 1 -1.</_>
        <_>
          30 6 2 1 2.</_></rects>
      <tilted>0</tilted></_>
    <_>
      <rects>
        <_>
          28 6 4 4 -1.</_>
        <_>
          28 6 2 2 2.</_>
        <_>
          30 8 2 2 2.</_></rects>
      <tilted>0</tilted></_>
    <_>
      <rects>
        <_>
          29 0 6 14 -1.</_>
        <_>
          29 0 3 7 2.</_>
        <_>
          32 7 3 7 2.</_></rects>
      <tilted>0</tilted></_>
    <_>
      <rects>
        <_>
          29 3 4 6 -1.</_>
        <_>
          29 3 2 3 2.</_>
        <_>
          31 6 2 3 2.</_></rects>
      <tilted>0</tilted></_>
    <_>
      <rects>
        <_>
          30 6 2 4 -1.</_>
        <_>
          30 8 2 2 2.</_></rects>
      <tilted>0</tilted></_>
    <_>
      <rects>
        <_>
          30 27 2 1 -1.</_>
        <_>
          31 27 1 1 2.</_></rects>
      <tilted>0</tilted></_>
    <_>
      <rects>
        <_>
          31 15 2 16 -1.</_>
        <_>
          31 15 1 8 2.</_>
        <_>
          32 23 1 8 2.</_></rects>
      <tilted>0</tilted></_>
    <_>
      <rects>
        <_>
          31 19 2 14 -1.</_>
        <_>
          31 26 2 7 2.</_></rects>
      <tilted>0</tilted></_>
    <_>
      <rects>
        <_>
          31 24 2 8 -1.</_>
        <_>
          31 28 2 4 2.</_></rects>
      <tilted>0</tilted></_>
    <_>
      <rects>
        <_>
          31 24 4 8 -1.</_>
        <_>
          33 24 2 8 2.</_></rects>
      <tilted>0</tilted></_>
    <_>
      <rects>
        <_>
          31 26 2 4 -1.</_>
        <_>
          31 26 1 2 2.</_>
        <_>
          32 28 1 2 2.</_></rects>
      <tilted>0</tilted></_>
    <_>
      <rects>
        <_>
          32 18 2 8 -1.</_>
        <_>
          32 18 1 4 2.</_>
        <_>
          33 22 1 4 2.</_></rects>
      <tilted>0</tilted></_>
    <_>
      <rects>
        <_>
          33 11 2 13 -1.</_>
        <_>
          34 11 1 13 2.</_></rects>
      <tilted>0</tilted></_>
    <_>
      <rects>
        <_>
          33 17 2 3 -1.</_>
        <_>
          34 17 1 3 2.</_></rects>
      <tilted>0</tilted></_></features></cascade>
</opencv_storage>
