<?xml version="1.0"?>
<opencv_storage>
<cascade>
  <stageType>BOOST</stageType>
  <featureType>HAAR</featureType>
  <height>40</height>
  <width>40</width>
  <stageParams>
    <boostType>GAB</boostType>
    <minHitRate>9.9500000476837158e-01</minHitRate>
    <maxFalseAlarm>5.0000000000000000e-01</maxFalseAlarm>
    <weightTrimRate>9.4999999999999996e-01</weightTrimRate>
    <maxDepth>1</maxDepth>
    <maxWeakCount>100</maxWeakCount></stageParams>
  <featureParams>
    <maxCatCount>0</maxCatCount>
    <featSize>1</featSize>
    <mode>ALL</mode></featureParams>
  <stageNum>9</stageNum>
  <stages>
    <!-- stage 0 -->
    <_>
      <maxWeakCount>2</maxWeakCount>
      <stageThreshold>-3.1102478504180908e-01</stageThreshold>
      <weakClassifiers>
        <_>
          <internalNodes>
            0 -1 21 -4.0774606168270111e-02</internalNodes>
          <leafValues>
            7.8037381172180176e-01 -9.6864688396453857e-01</leafValues></_>
        <_>
          <internalNodes>
            0 -1 4 1.5484681352972984e-02</internalNodes>
          <leafValues>
            -9.6561974287033081e-01 6.5762209892272949e-01</leafValues></_></weakClassifiers></_>
    <!-- stage 1 -->
    <_>
      <maxWeakCount>3</maxWeakCount>
      <stageThreshold>-1.1448245048522949e+00</stageThreshold>
      <weakClassifiers>
        <_>
          <internalNodes>
            0 -1 10 3.4800842404365540e-02</internalNodes>
          <leafValues>
            -8.8039606809616089e-01 7.1920531988143921e-01</leafValues></_>
        <_>
          <internalNodes>
            0 -1 22 1.9543480128049850e-02</internalNodes>
          <leafValues>
            -9.4501203298568726e-01 6.4502620697021484e-01</leafValues></_>
        <_>
          <internalNodes>
            0 -1 14 -2.1167248487472534e-02</internalNodes>
          <leafValues>
            6.8058359622955322e-01 -8.8139158487319946e-01</leafValues></_></weakClassifiers></_>
    <!-- stage 2 -->
    <_>
      <maxWeakCount>3</maxWeakCount>
      <stageThreshold>-1.1117442846298218e+00</stageThreshold>
      <weakClassifiers>
        <_>
          <internalNodes>
            0 -1 2 1.5481669455766678e-02</internalNodes>
          <leafValues>
            -8.7916666269302368e-01 4.8863637447357178e-01</leafValues></_>
        <_>
          <internalNodes>
            0 -1 23 1.5737198293209076e-02</internalNodes>
          <leafValues>
            -8.2536077499389648e-01 6.5500485897064209e-01</leafValues></_>
        <_>
          <internalNodes>
            0 -1 6 2.1011065691709518e-02</internalNodes>
          <leafValues>
            -8.6792135238647461e-01 5.9278321266174316e-01</leafValues></_></weakClassifiers></_>
    <!-- stage 3 -->
    <_>
      <maxWeakCount>3</maxWeakCount>
      <stageThreshold>-1.2360417842864990e+00</stageThreshold>
      <weakClassifiers>
        <_>
          <internalNodes>
            0 -1 1 4.5237034559249878e-02</internalNodes>
          <leafValues>
            -8.7987011671066284e-01 5.9803920984268188e-01</leafValues></_>
        <_>
          <internalNodes>
            0 -1 25 -7.6528177596628666e-03</internalNodes>
          <leafValues>
            4.6357265114784241e-01 -8.0602937936782837e-01</leafValues></_>
        <_>
          <internalNodes>
            0 -1 5 -9.4934338703751564e-03</internalNodes>
          <leafValues>
            5.0756198167800903e-01 -8.1974422931671143e-01</leafValues></_></weakClassifiers></_>
    <!-- stage 4 -->
    <_>
      <maxWeakCount>2</maxWeakCount>
      <stageThreshold>-5.1124912500381470e-01</stageThreshold>
      <weakClassifiers>
        <_>
          <internalNodes>
            0 -1 18 -2.6004977524280548e-02</internalNodes>
          <leafValues>
            7.1080666780471802e-01 -8.1852841377258301e-01</leafValues></_>
        <_>
          <internalNodes>
            0 -1 9 3.0727668199688196e-03</internalNodes>
          <leafValues>
            -9.7878795862197876e-01 3.0727925896644592e-01</leafValues></_></weakClassifiers></_>
    <!-- stage 5 -->
    <_>
      <maxWeakCount>3</maxWeakCount>
      <stageThreshold>-1.2411329746246338e+00</stageThreshold>
      <weakClassifiers>
        <_>
          <internalNodes>
            0 -1 19 -3.7623882293701172e-02</internalNodes>
          <leafValues>
            6.0194176435470581e-01 -7.7084898948669434e-01</leafValues></_>
        <_>
          <internalNodes>
            0 -1 12 1.3372357934713364e-02</internalNodes>
          <leafValues>
            -7.9822736978530884e-01 4.7141104936599731e-01</leafValues></_>
        <_>
          <internalNodes>
            0 -1 16 -2.1174101158976555e-02</internalNodes>
          <leafValues>
            3.2794332504272461e-01 -9.5128798484802246e-01</leafValues></_></weakClassifiers></_>
    <!-- stage 6 -->
    <_>
      <maxWeakCount>4</maxWeakCount>
      <stageThreshold>-1.1572067737579346e+00</stageThreshold>
      <weakClassifiers>
        <_>
          <internalNodes>
            0 -1 13 4.1296191513538361e-02</internalNodes>
          <leafValues>
            -8.0933386087417603e-01 4.5148772001266479e-01</leafValues></_>
        <_>
          <internalNodes>
            0 -1 15 1.4541190117597580e-02</internalNodes>
          <leafValues>
            -9.4417661428451538e-01 3.8439857959747314e-01</leafValues></_>
        <_>
          <internalNodes>
            0 -1 8 -3.6476805806159973e-02</internalNodes>
          <leafValues>
            2.9074412584304810e-01 -8.8689327239990234e-01</leafValues></_>
        <_>
          <internalNodes>
            0 -1 0 -1.0090718278661370e-03</internalNodes>
          <leafValues>
            3.0555960536003113e-01 -9.0879476070404053e-01</leafValues></_></weakClassifiers></_>
    <!-- stage 7 -->
    <_>
      <maxWeakCount>3</maxWeakCount>
      <stageThreshold>-1.1322821378707886e+00</stageThreshold>
      <weakClassifiers>
        <_>
          <internalNodes>
            0 -1 24 -1.8962804228067398e-02</internalNodes>
          <leafValues>
            1.7615658044815063e-01 -8.7105751037597656e-01</leafValues></_>
        <_>
          <internalNodes>
            0 -1 3 1.6696248203516006e-02</internalNodes>
          <leafValues>
            -6.9641619920730591e-01 4.9186390638351440e-01</leafValues></_>
        <_>
          <internalNodes>
            0 -1 11 1.3654890656471252e-01</internalNodes>
          <leafValues>
            -7.3174923658370972e-01 4.3519166111946106e-01</leafValues></_></weakClassifiers></_>
    <!-- stage 8 -->
    <_>
      <maxWeakCount>4</maxWeakCount>
      <stageThreshold>-1.3798106908798218e+00</stageThreshold>
      <weakClassifiers>
        <_>
          <internalNodes>
            0 -1 20 2.5731839239597321e-02</internalNodes>
          <leafValues>
            -8.7376356124877930e-01 1.5125323832035065e-01</leafValues></_>
        <_>
          <internalNodes>
            0 -1 7 6.6362915094941854e-04</internalNodes>
          <leafValues>
            -8.5417848825454712e-01 2.4444152414798737e-01</leafValues></_>
        <_>
          <internalNodes>
            0 -1 26 4.4697412522509694e-04</internalNodes>
          <leafValues>
            2.6084497570991516e-01 -9.4397479295730591e-01</leafValues></_>
        <_>
          <internalNodes>
            0 -1 17 1.6699286643415689e-03</internalNodes>
          <leafValues>
            -8.9391416311264038e-01 2.6708936691284180e-01</leafValues></_></weakClassifiers></_></stages>
  <features>
    <_>
      <rects>
        <_>
          0 0 5 16 -1.</_>
        <_>
          0 4 5 8 2.</_></rects>
      <tilted>0</tilted></_>
    <_>
      <rects>
        <_>
          0 4 40 3 -1.</_>
        <_>
          10 4 20 3 2.</_></rects>
      <tilted>0</tilted></_>
    <_>
      <rects>
        <_>
          0 5 40 1 -1.</_>
        <_>
          10 5 20 1 2.</_></rects>
      <tilted>0</tilted></_>
    <_>
      <rects>
        <_>
          0 8 4 23 -1.</_>
        <_>
          2 8 2 23 2.</_></rects>
      <tilted>0</tilted></_>
    <_>
      <rects>
        <_>
          0 10 6 24 -1.</_>
        <_>
          3 10 3 24 2.</_></rects>
      <tilted>0</tilted></_>
    <_>
      <rects>
        <_>
          0 30 12 10 -1.</_>
        <_>
          0 30 6 5 2.</_>
        <_>
          6 35 6 5 2.</_></rects>
      <tilted>0</tilted></_>
    <_>
      <rects>
        <_>
          3 2 3 36 -1.</_>
        <_>
          3 11 3 18 2.</_></rects>
      <tilted>0</tilted></_>
    <_>
      <rects>
        <_>
          3 17 2 16 -1.</_>
        <_>
          3 17 1 8 2.</_>
        <_>
          4 25 1 8 2.</_></rects>
      <tilted>0</tilted></_>
    <_>
      <rects>
        <_>
          4 32 30 8 -1.</_>
        <_>
          4 36 30 4 2.</_></rects>
      <tilted>0</tilted></_>
    <_>
      <rects>
        <_>
          6 1 6 8 -1.</_>
        <_>
          6 5 6 4 2.</_></rects>
      <tilted>0</tilted></_>
    <_>
      <rects>
        <_>
          7 0 27 6 -1.</_>
        <_>
          7 3 27 3 2.</_></rects>
      <tilted>0</tilted></_>
    <_>
      <rects>
        <_>
          8 4 32 33 -1.</_>
        <_>
          16 4 16 33 2.</_></rects>
      <tilted>0</tilted></_>
    <_>
      <rects>
        <_>
          8 31 18 9 -1.</_>
        <_>
          8 34 18 3 3.</_></rects>
      <tilted>0</tilted></_>
    <_>
      <rects>
        <_>
          9 0 21 6 -1.</_>
        <_>
          9 3 21 3 2.</_></rects>
      <tilted>0</tilted></_>
    <_>
      <rects>
        <_>
          9 34 22 6 -1.</_>
        <_>
          9 37 22 3 2.</_></rects>
      <tilted>0</tilted></_>
    <_>
      <rects>
        <_>
          11 27 3 10 -1.</_>
        <_>
          11 27 3 5 2.</_></rects>
      <tilted>1</tilted></_>
    <_>
      <rects>
        <_>
          17 21 20 18 -1.</_>
        <_>
          17 21 10 9 2.</_>
        <_>
          27 30 10 9 2.</_></rects>
      <tilted>0</tilted></_>
    <_>
      <rects>
        <_>
          28 6 9 4 -1.</_>
        <_>
          28 8 9 2 2.</_></rects>
      <tilted>0</tilted></_>
    <_>
      <rects>
        <_>
          29 0 10 4 -1.</_>
        <_>
          29 0 10 2 2.</_></rects>
      <tilted>1</tilted></_>
    <_>
      <rects>
        <_>
          29 0 11 4 -1.</_>
        <_>
          29 0 11 2 2.</_></rects>
      <tilted>1</tilted></_>
    <_>
      <rects>
        <_>
          31 11 9 17 -1.</_>
        <_>
          34 11 3 17 3.</_></rects>
      <tilted>0</tilted></_>
    <_>
      <rects>
        <_>
          32 9 8 23 -1.</_>
        <_>
          36 9 4 23 2.</_></rects>
      <tilted>0</tilted></_>
    <_>
      <rects>
        <_>
          34 4 3 32 -1.</_>
        <_>
          34 12 3 16 2.</_></rects>
      <tilted>0</tilted></_>
    <_>
      <rects>
        <_>
          34 27 4 9 -1.</_>
        <_>
          34 27 2 9 2.</_></rects>
      <tilted>1</tilted></_>
    <_>
      <rects>
        <_>
          35 8 4 22 -1.</_>
        <_>
          37 8 2 22 2.</_></rects>
      <tilted>0</tilted></_>
    <_>
      <rects>
        <_>
          36 17 4 8 -1.</_>
        <_>
          38 17 2 8 2.</_></rects>
      <tilted>0</tilted></_>
    <_>
      <rects>
        <_>
          37 32 2 6 -1.</_>
        <_>
          37 32 1 6 2.</_></rects>
      <tilted>1</tilted></_></features></cascade>
</opencv_storage>
