<?xml version="1.0"?>
<opencv_storage>
<cascade>
  <stageType>BOOST</stageType>
  <featureType>HAAR</featureType>
  <height>12</height>
  <width>55</width>
  <stageParams>
    <boostType>GAB</boostType>
    <minHitRate>9.9500000476837158e-01</minHitRate>
    <maxFalseAlarm>5.0000000000000000e-01</maxFalseAlarm>
    <weightTrimRate>9.4999999999999996e-01</weightTrimRate>
    <maxDepth>1</maxDepth>
    <maxWeakCount>100</maxWeakCount></stageParams>
  <featureParams>
    <maxCatCount>0</maxCatCount>
    <featSize>1</featSize>
    <mode>ALL</mode></featureParams>
  <stageNum>12</stageNum>
  <stages>
    <!-- stage 0 -->
    <_>
      <maxWeakCount>5</maxWeakCount>
      <stageThreshold>-1.2681843042373657e+00</stageThreshold>
      <weakClassifiers>
        <_>
          <internalNodes>
            0 -1 33 1.7158409953117371e-01</internalNodes>
          <leafValues>
            -8.5156583786010742e-01 5.0359714031219482e-01</leafValues></_>
        <_>
          <internalNodes>
            0 -1 16 -3.4486674703657627e-03</internalNodes>
          <leafValues>
            -9.8901975154876709e-01 1.1477023363113403e-01</leafValues></_>
        <_>
          <internalNodes>
            0 -1 8 2.2535431198775768e-03</internalNodes>
          <leafValues>
            3.2514131069183350e-01 -9.5605909824371338e-01</leafValues></_>
        <_>
          <internalNodes>
            0 -1 7 -3.2738144509494305e-03</internalNodes>
          <leafValues>
            -9.8559033870697021e-01 2.1744477748870850e-01</leafValues></_>
        <_>
          <internalNodes>
            0 -1 73 8.7871274445205927e-05</internalNodes>
          <leafValues>
            2.0722560584545135e-01 -9.6535938978195190e-01</leafValues></_></weakClassifiers></_>
    <!-- stage 1 -->
    <_>
      <maxWeakCount>3</maxWeakCount>
      <stageThreshold>-1.4791615009307861e+00</stageThreshold>
      <weakClassifiers>
        <_>
          <internalNodes>
            0 -1 6 1.4692014083266258e-03</internalNodes>
          <leafValues>
            2.7479675412178040e-01 -9.8346251249313354e-01</leafValues></_>
        <_>
          <internalNodes>
            0 -1 19 3.0032952781766653e-03</internalNodes>
          <leafValues>
            1.3588833808898926e-01 -9.6918195486068726e-01</leafValues></_>
        <_>
          <internalNodes>
            0 -1 51 -4.8951212316751480e-02</internalNodes>
          <leafValues>
            4.7348299622535706e-01 -5.8515757322311401e-01</leafValues></_></weakClassifiers></_>
    <!-- stage 2 -->
    <_>
      <maxWeakCount>5</maxWeakCount>
      <stageThreshold>-1.2336684465408325e+00</stageThreshold>
      <weakClassifiers>
        <_>
          <internalNodes>
            0 -1 35 1.3989311456680298e-01</internalNodes>
          <leafValues>
            -8.6699509620666504e-01 1.7180617153644562e-01</leafValues></_>
        <_>
          <internalNodes>
            0 -1 44 -9.1684937477111816e-02</internalNodes>
          <leafValues>
            6.5450322628021240e-01 -4.9858069419860840e-01</leafValues></_>
        <_>
          <internalNodes>
            0 -1 15 5.2557123126462102e-05</internalNodes>
          <leafValues>
            -7.6984560489654541e-01 3.4128686785697937e-01</leafValues></_>
        <_>
          <internalNodes>
            0 -1 36 -2.4519607424736023e-02</internalNodes>
          <leafValues>
            6.5777420997619629e-01 -4.1238734126091003e-01</leafValues></_>
        <_>
          <internalNodes>
            0 -1 4 1.0140695376321673e-03</internalNodes>
          <leafValues>
            2.7533909678459167e-01 -9.8633861541748047e-01</leafValues></_></weakClassifiers></_>
    <!-- stage 3 -->
    <_>
      <maxWeakCount>5</maxWeakCount>
      <stageThreshold>-1.2748537063598633e+00</stageThreshold>
      <weakClassifiers>
        <_>
          <internalNodes>
            0 -1 42 -8.8842406868934631e-02</internalNodes>
          <leafValues>
            6.1662817001342773e-01 -6.7057102918624878e-01</leafValues></_>
        <_>
          <internalNodes>
            0 -1 4 -2.8084660880267620e-04</internalNodes>
          <leafValues>
            -9.3552798032760620e-01 2.9703614115715027e-01</leafValues></_>
        <_>
          <internalNodes>
            0 -1 5 2.7573775500059128e-02</internalNodes>
          <leafValues>
            -6.4519488811492920e-01 4.1988965868949890e-01</leafValues></_>
        <_>
          <internalNodes>
            0 -1 29 1.7320060729980469e-01</internalNodes>
          <leafValues>
            -3.9120537042617798e-01 6.4319235086441040e-01</leafValues></_>
        <_>
          <internalNodes>
            0 -1 71 4.1300064185634255e-04</internalNodes>
          <leafValues>
            3.3324784040451050e-01 -8.7612283229827881e-01</leafValues></_></weakClassifiers></_>
    <!-- stage 4 -->
    <_>
      <maxWeakCount>5</maxWeakCount>
      <stageThreshold>-1.6826485395431519e+00</stageThreshold>
      <weakClassifiers>
        <_>
          <internalNodes>
            0 -1 47 -1.1724653840065002e-01</internalNodes>
          <leafValues>
            3.6690646409988403e-01 -6.7803758382797241e-01</leafValues></_>
        <_>
          <internalNodes>
            0 -1 52 -3.3647410571575165e-02</internalNodes>
          <leafValues>
            5.5277001857757568e-01 -4.7422569990158081e-01</leafValues></_>
        <_>
          <internalNodes>
            0 -1 2 -2.5078426115214825e-03</internalNodes>
          <leafValues>
            -9.4928002357482910e-01 2.3656883835792542e-01</leafValues></_>
        <_>
          <internalNodes>
            0 -1 1 3.7028468796052039e-04</internalNodes>
          <leafValues>
            2.2957065701484680e-01 -9.0777605772018433e-01</leafValues></_>
        <_>
          <internalNodes>
            0 -1 71 -5.5238825734704733e-04</internalNodes>
          <leafValues>
            -9.3503153324127197e-01 1.4082197844982147e-01</leafValues></_></weakClassifiers></_>
    <!-- stage 5 -->
    <_>
      <maxWeakCount>8</maxWeakCount>
      <stageThreshold>-1.7344385385513306e+00</stageThreshold>
      <weakClassifiers>
        <_>
          <internalNodes>
            0 -1 42 -1.0307262837886810e-01</internalNodes>
          <leafValues>
            5.2289158105850220e-01 -6.4800000190734863e-01</leafValues></_>
        <_>
          <internalNodes>
            0 -1 14 2.7624040376394987e-04</internalNodes>
          <leafValues>
            2.0988966524600983e-01 -8.2487642765045166e-01</leafValues></_>
        <_>
          <internalNodes>
            0 -1 17 1.3963336125016212e-02</internalNodes>
          <leafValues>
            -5.9596562385559082e-01 3.2241290807723999e-01</leafValues></_>
        <_>
          <internalNodes>
            0 -1 49 -4.3808761984109879e-03</internalNodes>
          <leafValues>
            -8.8992643356323242e-01 2.4687469005584717e-01</leafValues></_>
        <_>
          <internalNodes>
            0 -1 48 -1.4463397860527039e-01</internalNodes>
          <leafValues>
            4.0488150715827942e-01 -4.8372203111648560e-01</leafValues></_>
        <_>
          <internalNodes>
            0 -1 66 1.2300134403631091e-03</internalNodes>
          <leafValues>
            2.2366200387477875e-01 -8.3621454238891602e-01</leafValues></_>
        <_>
          <internalNodes>
            0 -1 45 9.0527366846799850e-03</internalNodes>
          <leafValues>
            1.3887272775173187e-01 -9.4345080852508545e-01</leafValues></_>
        <_>
          <internalNodes>
            0 -1 62 -4.4778338633477688e-05</internalNodes>
          <leafValues>
            3.1075114011764526e-01 -5.2863723039627075e-01</leafValues></_></weakClassifiers></_>
    <!-- stage 6 -->
    <_>
      <maxWeakCount>8</maxWeakCount>
      <stageThreshold>-1.6753306388854980e+00</stageThreshold>
      <weakClassifiers>
        <_>
          <internalNodes>
            0 -1 39 -1.7110902070999146e-01</internalNodes>
          <leafValues>
            4.5974025130271912e-01 -6.2661868333816528e-01</leafValues></_>
        <_>
          <internalNodes>
            0 -1 25 5.5897189304232597e-03</internalNodes>
          <leafValues>
            -6.4674121141433716e-01 3.2678347826004028e-01</leafValues></_>
        <_>
          <internalNodes>
            0 -1 13 2.1148663945496082e-03</internalNodes>
          <leafValues>
            2.4027198553085327e-01 -7.8022915124893188e-01</leafValues></_>
        <_>
          <internalNodes>
            0 -1 27 3.6530993384076282e-05</internalNodes>
          <leafValues>
            -5.1825886964797974e-01 3.7547776103019714e-01</leafValues></_>
        <_>
          <internalNodes>
            0 -1 28 -1.4319312758743763e-03</internalNodes>
          <leafValues>
            -9.7319740056991577e-01 1.7199876904487610e-01</leafValues></_>
        <_>
          <internalNodes>
            0 -1 28 1.5643413644284010e-03</internalNodes>
          <leafValues>
            2.1724730730056763e-01 -9.5307332277297974e-01</leafValues></_>
        <_>
          <internalNodes>
            0 -1 20 1.7651388421654701e-02</internalNodes>
          <leafValues>
            -6.3616985082626343e-01 2.3992237448692322e-01</leafValues></_>
        <_>
          <internalNodes>
            0 -1 67 -1.9545830582501367e-05</internalNodes>
          <leafValues>
            3.7439939379692078e-01 -4.9818924069404602e-01</leafValues></_></weakClassifiers></_>
    <!-- stage 7 -->
    <_>
      <maxWeakCount>7</maxWeakCount>
      <stageThreshold>-1.1193667650222778e+00</stageThreshold>
      <weakClassifiers>
        <_>
          <internalNodes>
            0 -1 76 2.6675693690776825e-02</internalNodes>
          <leafValues>
            -6.0457062721252441e-01 6.5342962741851807e-01</leafValues></_>
        <_>
          <internalNodes>
            0 -1 72 1.4570965504390188e-05</internalNodes>
          <leafValues>
            2.4754062294960022e-01 -6.7322486639022827e-01</leafValues></_>
        <_>
          <internalNodes>
            0 -1 75 -1.0571377351880074e-03</internalNodes>
          <leafValues>
            -9.1662758588790894e-01 2.9608339071273804e-01</leafValues></_>
        <_>
          <internalNodes>
            0 -1 30 2.3901881650090218e-03</internalNodes>
          <leafValues>
            1.7351782321929932e-01 -9.8789441585540771e-01</leafValues></_>
        <_>
          <internalNodes>
            0 -1 46 -1.0430523753166199e-01</internalNodes>
          <leafValues>
            4.1979783773422241e-01 -4.5081913471221924e-01</leafValues></_>
        <_>
          <internalNodes>
            0 -1 32 -1.9264168804511428e-03</internalNodes>
          <leafValues>
            -8.9965343475341797e-01 2.0693156123161316e-01</leafValues></_>
        <_>
          <internalNodes>
            0 -1 60 -3.3317413908662274e-05</internalNodes>
          <leafValues>
            2.7480909228324890e-01 -5.9417092800140381e-01</leafValues></_></weakClassifiers></_>
    <!-- stage 8 -->
    <_>
      <maxWeakCount>6</maxWeakCount>
      <stageThreshold>-1.2101945877075195e+00</stageThreshold>
      <weakClassifiers>
        <_>
          <internalNodes>
            0 -1 43 1.9430971145629883e-01</internalNodes>
          <leafValues>
            -7.6476377248764038e-01 -9.7087379544973373e-03</leafValues></_>
        <_>
          <internalNodes>
            0 -1 68 -3.7284582504071295e-05</internalNodes>
          <leafValues>
            1.8671186268329620e-01 -6.9484972953796387e-01</leafValues></_>
        <_>
          <internalNodes>
            0 -1 26 -5.4777105106040835e-04</internalNodes>
          <leafValues>
            -9.2416334152221680e-01 1.3721683621406555e-01</leafValues></_>
        <_>
          <internalNodes>
            0 -1 10 -4.9727596342563629e-04</internalNodes>
          <leafValues>
            -9.0279334783554077e-01 1.5512795746326447e-01</leafValues></_>
        <_>
          <internalNodes>
            0 -1 11 3.6163311451673508e-02</internalNodes>
          <leafValues>
            1.4122121036052704e-01 -9.5175635814666748e-01</leafValues></_>
        <_>
          <internalNodes>
            0 -1 18 -2.1433714777231216e-02</internalNodes>
          <leafValues>
            -9.3920212984085083e-01 1.6918255388736725e-01</leafValues></_></weakClassifiers></_>
    <!-- stage 9 -->
    <_>
      <maxWeakCount>8</maxWeakCount>
      <stageThreshold>-1.5111012458801270e+00</stageThreshold>
      <weakClassifiers>
        <_>
          <internalNodes>
            0 -1 34 -2.0346777141094208e-01</internalNodes>
          <leafValues>
            4.1065829992294312e-01 -5.9592407941818237e-01</leafValues></_>
        <_>
          <internalNodes>
            0 -1 21 5.6755147874355316e-02</internalNodes>
          <leafValues>
            -4.9017876386642456e-01 3.1801393628120422e-01</leafValues></_>
        <_>
          <internalNodes>
            0 -1 40 1.9439920783042908e-01</internalNodes>
          <leafValues>
            -2.8822445869445801e-01 5.4995167255401611e-01</leafValues></_>
        <_>
          <internalNodes>
            0 -1 53 1.7328675603494048e-03</internalNodes>
          <leafValues>
            1.7928361892700195e-01 -8.7486791610717773e-01</leafValues></_>
        <_>
          <internalNodes>
            0 -1 3 1.0799427982419729e-03</internalNodes>
          <leafValues>
            1.6940516233444214e-01 -8.8039249181747437e-01</leafValues></_>
        <_>
          <internalNodes>
            0 -1 50 -2.0725338254123926e-04</internalNodes>
          <leafValues>
            -8.4316897392272949e-01 1.2024665623903275e-01</leafValues></_>
        <_>
          <internalNodes>
            0 -1 22 -3.4578578197397292e-04</internalNodes>
          <leafValues>
            -9.8634892702102661e-01 9.3194335699081421e-02</leafValues></_>
        <_>
          <internalNodes>
            0 -1 54 -1.6684684902429581e-02</internalNodes>
          <leafValues>
            2.6451191306114197e-01 -4.7830849885940552e-01</leafValues></_></weakClassifiers></_>
    <!-- stage 10 -->
    <_>
      <maxWeakCount>10</maxWeakCount>
      <stageThreshold>-1.5125929117202759e+00</stageThreshold>
      <weakClassifiers>
        <_>
          <internalNodes>
            0 -1 23 3.6351787857711315e-03</internalNodes>
          <leafValues>
            -8.2637077569961548e-01 -1.8309858441352844e-01</leafValues></_>
        <_>
          <internalNodes>
            0 -1 74 1.5441935101989657e-04</internalNodes>
          <leafValues>
            5.6085895746946335e-02 -9.0189862251281738e-01</leafValues></_>
        <_>
          <internalNodes>
            0 -1 9 1.6871933639049530e-01</internalNodes>
          <leafValues>
            -5.3674584627151489e-01 2.9755920171737671e-01</leafValues></_>
        <_>
          <internalNodes>
            0 -1 63 -6.1063699831720442e-05</internalNodes>
          <leafValues>
            3.1927108764648438e-01 -4.5891898870468140e-01</leafValues></_>
        <_>
          <internalNodes>
            0 -1 65 -6.3006342388689518e-03</internalNodes>
          <leafValues>
            -9.9486643075942993e-01 1.4340980350971222e-01</leafValues></_>
        <_>
          <internalNodes>
            0 -1 55 -9.4647258520126343e-02</internalNodes>
          <leafValues>
            4.1825801134109497e-01 -3.1686913967132568e-01</leafValues></_>
        <_>
          <internalNodes>
            0 -1 61 -9.5045901834964752e-03</internalNodes>
          <leafValues>
            -7.8911983966827393e-01 2.0494008064270020e-01</leafValues></_>
        <_>
          <internalNodes>
            0 -1 69 -9.1600457380991429e-05</internalNodes>
          <leafValues>
            4.4513064622879028e-01 -3.4110158681869507e-01</leafValues></_>
        <_>
          <internalNodes>
            0 -1 38 4.6293664723634720e-02</internalNodes>
          <leafValues>
            -2.0846413075923920e-01 6.7474639415740967e-01</leafValues></_>
        <_>
          <internalNodes>
            0 -1 59 -7.1750138886272907e-04</internalNodes>
          <leafValues>
            -9.2039495706558228e-01 1.5999402105808258e-01</leafValues></_></weakClassifiers></_>
    <!-- stage 11 -->
    <_>
      <maxWeakCount>11</maxWeakCount>
      <stageThreshold>-1.5657401084899902e+00</stageThreshold>
      <weakClassifiers>
        <_>
          <internalNodes>
            0 -1 64 -4.2440129618626088e-05</internalNodes>
          <leafValues>
            -9.1811411082744598e-02 -7.4335378408432007e-01</leafValues></_>
        <_>
          <internalNodes>
            0 -1 24 8.4422819782048464e-05</internalNodes>
          <leafValues>
            -6.4131516218185425e-01 1.1642336100339890e-01</leafValues></_>
        <_>
          <internalNodes>
            0 -1 37 -1.4811563491821289e-01</internalNodes>
          <leafValues>
            5.6088244915008545e-01 -2.4146293103694916e-01</leafValues></_>
        <_>
          <internalNodes>
            0 -1 58 -9.2713189587811939e-06</internalNodes>
          <leafValues>
            -6.9558179378509521e-01 1.8055394291877747e-01</leafValues></_>
        <_>
          <internalNodes>
            0 -1 31 5.0650771299842745e-05</internalNodes>
          <leafValues>
            -4.2622575163841248e-01 3.1101521849632263e-01</leafValues></_>
        <_>
          <internalNodes>
            0 -1 0 6.8045128136873245e-04</internalNodes>
          <leafValues>
            1.5425771474838257e-01 -8.4894180297851563e-01</leafValues></_>
        <_>
          <internalNodes>
            0 -1 41 -8.3081990480422974e-02</internalNodes>
          <leafValues>
            5.9929019212722778e-01 -2.3678389191627502e-01</leafValues></_>
        <_>
          <internalNodes>
            0 -1 57 3.3787096617743373e-04</internalNodes>
          <leafValues>
            1.6649669408798218e-01 -8.9953511953353882e-01</leafValues></_>
        <_>
          <internalNodes>
            0 -1 12 3.9885714650154114e-03</internalNodes>
          <leafValues>
            8.0870084464550018e-02 -9.1109269857406616e-01</leafValues></_>
        <_>
          <internalNodes>
            0 -1 56 -7.0206959208007902e-05</internalNodes>
          <leafValues>
            2.7004355192184448e-01 -3.8801124691963196e-01</leafValues></_>
        <_>
          <internalNodes>
            0 -1 70 7.4872310506179929e-05</internalNodes>
          <leafValues>
            1.1664040386676788e-01 -8.9082485437393188e-01</leafValues></_></weakClassifiers></_></stages>
  <features>
    <_>
      <rects>
        <_>
          0 0 1 12 -1.</_>
        <_>
          0 3 1 6 2.</_></rects>
      <tilted>0</tilted></_>
    <_>
      <rects>
        <_>
          0 0 1 12 -1.</_>
        <_>
          0 6 1 6 2.</_></rects>
      <tilted>0</tilted></_>
    <_>
      <rects>
        <_>
          0 0 2 12 -1.</_>
        <_>
          0 6 2 6 2.</_></rects>
      <tilted>0</tilted></_>
    <_>
      <rects>
        <_>
          0 0 20 3 -1.</_>
        <_>
          5 0 10 3 2.</_></rects>
      <tilted>0</tilted></_>
    <_>
      <rects>
        <_>
          0 0 16 1 -1.</_>
        <_>
          8 0 8 1 2.</_></rects>
      <tilted>0</tilted></_>
    <_>
      <rects>
        <_>
          0 0 18 11 -1.</_>
        <_>
          9 0 9 11 2.</_></rects>
      <tilted>0</tilted></_>
    <_>
      <rects>
        <_>
          0 0 44 1 -1.</_>
        <_>
          22 0 22 1 2.</_></rects>
      <tilted>0</tilted></_>
    <_>
      <rects>
        <_>
          0 0 46 1 -1.</_>
        <_>
          23 0 23 1 2.</_></rects>
      <tilted>0</tilted></_>
    <_>
      <rects>
        <_>
          0 0 48 1 -1.</_>
        <_>
          24 0 24 1 2.</_></rects>
      <tilted>0</tilted></_>
    <_>
      <rects>
        <_>
          0 0 55 12 -1.</_>
        <_>
          0 3 55 6 2.</_></rects>
      <tilted>0</tilted></_>
    <_>
      <rects>
        <_>
          0 3 1 9 -1.</_>
        <_>
          0 6 1 3 3.</_></rects>
      <tilted>0</tilted></_>
    <_>
      <rects>
        <_>
          0 9 50 3 -1.</_>
        <_>
          25 9 25 3 2.</_></rects>
      <tilted>0</tilted></_>
    <_>
      <rects>
        <_>
          0 10 52 2 -1.</_>
        <_>
          0 11 52 1 2.</_></rects>
      <tilted>0</tilted></_>
    <_>
      <rects>
        <_>
          0 11 36 1 -1.</_>
        <_>
          12 11 12 1 3.</_></rects>
      <tilted>0</tilted></_>
    <_>
      <rects>
        <_>
          1 0 1 12 -1.</_>
        <_>
          1 6 1 6 2.</_></rects>
      <tilted>0</tilted></_>
    <_>
      <rects>
        <_>
          1 0 12 10 -1.</_>
        <_>
          7 0 6 10 2.</_></rects>
      <tilted>0</tilted></_>
    <_>
      <rects>
        <_>
          1 0 48 1 -1.</_>
        <_>
          25 0 24 1 2.</_></rects>
      <tilted>0</tilted></_>
    <_>
      <rects>
        <_>
          1 2 14 9 -1.</_>
        <_>
          8 2 7 9 2.</_></rects>
      <tilted>0</tilted></_>
    <_>
      <rects>
        <_>
          1 11 54 1 -1.</_>
        <_>
          28 11 27 1 2.</_></rects>
      <tilted>0</tilted></_>
    <_>
      <rects>
        <_>
          2 0 50 1 -1.</_>
        <_>
          27 0 25 1 2.</_></rects>
      <tilted>0</tilted></_>
    <_>
      <rects>
        <_>
          2 0 52 6 -1.</_>
        <_>
          2 3 52 3 2.</_></rects>
      <tilted>0</tilted></_>
    <_>
      <rects>
        <_>
          2 2 30 9 -1.</_>
        <_>
          12 2 10 9 3.</_></rects>
      <tilted>0</tilted></_>
    <_>
      <rects>
        <_>
          3 0 16 1 -1.</_>
        <_>
          7 0 8 1 2.</_></rects>
      <tilted>0</tilted></_>
    <_>
      <rects>
        <_>
          3 2 10 9 -1.</_>
        <_>
          8 2 5 9 2.</_></rects>
      <tilted>0</tilted></_>
    <_>
      <rects>
        <_>
          4 0 16 8 -1.</_>
        <_>
          4 4 16 4 2.</_></rects>
      <tilted>0</tilted></_>
    <_>
      <rects>
        <_>
          4 1 14 8 -1.</_>
        <_>
          11 1 7 8 2.</_></rects>
      <tilted>0</tilted></_>
    <_>
      <rects>
        <_>
          6 2 1 6 -1.</_>
        <_>
          6 2 1 3 2.</_></rects>
      <tilted>1</tilted></_>
    <_>
      <rects>
        <_>
          6 4 2 6 -1.</_>
        <_>
          6 4 2 3 2.</_></rects>
      <tilted>1</tilted></_>
    <_>
      <rects>
        <_>
          7 0 42 1 -1.</_>
        <_>
          21 0 14 1 3.</_></rects>
      <tilted>0</tilted></_>
    <_>
      <rects>
        <_>
          7 1 48 8 -1.</_>
        <_>
          7 3 48 4 2.</_></rects>
      <tilted>0</tilted></_>
    <_>
      <rects>
        <_>
          8 0 44 1 -1.</_>
        <_>
          30 0 22 1 2.</_></rects>
      <tilted>0</tilted></_>
    <_>
      <rects>
        <_>
          8 2 1 8 -1.</_>
        <_>
          8 2 1 4 2.</_></rects>
      <tilted>1</tilted></_>
    <_>
      <rects>
        <_>
          9 0 46 1 -1.</_>
        <_>
          32 0 23 1 2.</_></rects>
      <tilted>0</tilted></_>
    <_>
      <rects>
        <_>
          9 0 46 12 -1.</_>
        <_>
          9 3 46 6 2.</_></rects>
      <tilted>0</tilted></_>
    <_>
      <rects>
        <_>
          9 4 44 6 -1.</_>
        <_>
          9 4 22 3 2.</_>
        <_>
          31 7 22 3 2.</_></rects>
      <tilted>0</tilted></_>
    <_>
      <rects>
        <_>
          11 0 44 12 -1.</_>
        <_>
          11 3 44 6 2.</_></rects>
      <tilted>0</tilted></_>
    <_>
      <rects>
        <_>
          11 4 18 6 -1.</_>
        <_>
          11 6 18 2 3.</_></rects>
      <tilted>0</tilted></_>
    <_>
      <rects>
        <_>
          11 4 42 6 -1.</_>
        <_>
          11 4 21 3 2.</_>
        <_>
          32 7 21 3 2.</_></rects>
      <tilted>0</tilted></_>
    <_>
      <rects>
        <_>
          12 3 38 4 -1.</_>
        <_>
          12 3 19 2 2.</_>
        <_>
          31 5 19 2 2.</_></rects>
      <tilted>0</tilted></_>
    <_>
      <rects>
        <_>
          12 4 42 6 -1.</_>
        <_>
          12 4 21 3 2.</_>
        <_>
          33 7 21 3 2.</_></rects>
      <tilted>0</tilted></_>
    <_>
      <rects>
        <_>
          13 0 42 8 -1.</_>
        <_>
          13 2 42 4 2.</_></rects>
      <tilted>0</tilted></_>
    <_>
      <rects>
        <_>
          13 3 40 4 -1.</_>
        <_>
          13 3 20 2 2.</_>
        <_>
          33 5 20 2 2.</_></rects>
      <tilted>0</tilted></_>
    <_>
      <rects>
        <_>
          13 4 42 4 -1.</_>
        <_>
          13 4 21 2 2.</_>
        <_>
          34 6 21 2 2.</_></rects>
      <tilted>0</tilted></_>
    <_>
      <rects>
        <_>
          15 0 40 12 -1.</_>
        <_>
          15 3 40 6 2.</_></rects>
      <tilted>0</tilted></_>
    <_>
      <rects>
        <_>
          15 3 40 6 -1.</_>
        <_>
          15 3 20 3 2.</_>
        <_>
          35 6 20 3 2.</_></rects>
      <tilted>0</tilted></_>
    <_>
      <rects>
        <_>
          16 11 36 1 -1.</_>
        <_>
          28 11 12 1 3.</_></rects>
      <tilted>0</tilted></_>
    <_>
      <rects>
        <_>
          17 3 33 9 -1.</_>
        <_>
          28 6 11 3 9.</_></rects>
      <tilted>0</tilted></_>
    <_>
      <rects>
        <_>
          17 3 38 6 -1.</_>
        <_>
          17 3 19 3 2.</_>
        <_>
          36 6 19 3 2.</_></rects>
      <tilted>0</tilted></_>
    <_>
      <rects>
        <_>
          18 2 37 10 -1.</_>
        <_>
          18 7 37 5 2.</_></rects>
      <tilted>0</tilted></_>
    <_>
      <rects>
        <_>
          19 11 36 1 -1.</_>
        <_>
          28 11 18 1 2.</_></rects>
      <tilted>0</tilted></_>
    <_>
      <rects>
        <_>
          20 11 8 1 -1.</_>
        <_>
          24 11 4 1 2.</_></rects>
      <tilted>0</tilted></_>
    <_>
      <rects>
        <_>
          22 2 33 6 -1.</_>
        <_>
          33 2 11 6 3.</_></rects>
      <tilted>0</tilted></_>
    <_>
      <rects>
        <_>
          23 3 32 3 -1.</_>
        <_>
          31 3 16 3 2.</_></rects>
      <tilted>0</tilted></_>
    <_>
      <rects>
        <_>
          24 9 31 3 -1.</_>
        <_>
          24 10 31 1 3.</_></rects>
      <tilted>0</tilted></_>
    <_>
      <rects>
        <_>
          25 1 30 6 -1.</_>
        <_>
          35 3 10 2 9.</_></rects>
      <tilted>0</tilted></_>
    <_>
      <rects>
        <_>
          25 2 30 8 -1.</_>
        <_>
          25 2 15 4 2.</_>
        <_>
          40 6 15 4 2.</_></rects>
      <tilted>0</tilted></_>
    <_>
      <rects>
        <_>
          25 3 3 9 -1.</_>
        <_>
          26 6 1 3 9.</_></rects>
      <tilted>0</tilted></_>
    <_>
      <rects>
        <_>
          26 0 16 1 -1.</_>
        <_>
          34 0 8 1 2.</_></rects>
      <tilted>0</tilted></_>
    <_>
      <rects>
        <_>
          26 11 4 1 -1.</_>
        <_>
          28 11 2 1 2.</_></rects>
      <tilted>0</tilted></_>
    <_>
      <rects>
        <_>
          28 0 21 1 -1.</_>
        <_>
          35 0 7 1 3.</_></rects>
      <tilted>0</tilted></_>
    <_>
      <rects>
        <_>
          28 0 24 6 -1.</_>
        <_>
          36 2 8 2 9.</_></rects>
      <tilted>0</tilted></_>
    <_>
      <rects>
        <_>
          31 9 24 3 -1.</_>
        <_>
          39 10 8 1 9.</_></rects>
      <tilted>0</tilted></_>
    <_>
      <rects>
        <_>
          34 2 21 6 -1.</_>
        <_>
          41 4 7 2 9.</_></rects>
      <tilted>0</tilted></_>
    <_>
      <rects>
        <_>
          36 2 3 9 -1.</_>
        <_>
          37 5 1 3 9.</_></rects>
      <tilted>0</tilted></_>
    <_>
      <rects>
        <_>
          38 0 1 12 -1.</_>
        <_>
          38 4 1 4 3.</_></rects>
      <tilted>0</tilted></_>
    <_>
      <rects>
        <_>
          38 0 3 12 -1.</_>
        <_>
          38 3 3 6 2.</_></rects>
      <tilted>0</tilted></_>
    <_>
      <rects>
        <_>
          39 0 15 3 -1.</_>
        <_>
          44 1 5 1 9.</_></rects>
      <tilted>0</tilted></_>
    <_>
      <rects>
        <_>
          41 0 6 12 -1.</_>
        <_>
          43 4 2 4 9.</_></rects>
      <tilted>0</tilted></_>
    <_>
      <rects>
        <_>
          43 3 12 9 -1.</_>
        <_>
          47 6 4 3 9.</_></rects>
      <tilted>0</tilted></_>
    <_>
      <rects>
        <_>
          45 0 3 12 -1.</_>
        <_>
          45 3 3 6 2.</_></rects>
      <tilted>0</tilted></_>
    <_>
      <rects>
        <_>
          46 9 2 1 -1.</_>
        <_>
          46 9 1 1 2.</_></rects>
      <tilted>1</tilted></_>
    <_>
      <rects>
        <_>
          48 8 6 4 -1.</_>
        <_>
          50 8 2 4 3.</_></rects>
      <tilted>0</tilted></_>
    <_>
      <rects>
        <_>
          49 1 6 9 -1.</_>
        <_>
          51 4 2 3 9.</_></rects>
      <tilted>0</tilted></_>
    <_>
      <rects>
        <_>
          49 9 2 1 -1.</_>
        <_>
          49 9 1 1 2.</_></rects>
      <tilted>1</tilted></_>
    <_>
      <rects>
        <_>
          51 8 2 2 -1.</_>
        <_>
          51 8 1 2 2.</_></rects>
      <tilted>1</tilted></_>
    <_>
      <rects>
        <_>
          52 6 2 4 -1.</_>
        <_>
          52 6 1 4 2.</_></rects>
      <tilted>1</tilted></_>
    <_>
      <rects>
        <_>
          54 0 1 9 -1.</_>
        <_>
          54 3 1 3 3.</_></rects>
      <tilted>0</tilted></_></features></cascade>
</opencv_storage>
